,YiCH4,YiH,YiO,YiO2,YiOH,YiH2O,YiHO2,YiH2O2,YiC,YiCH,YiCH2,YiCH2(S),YiCH3,YiH2,YiCO,YiCO2,YiHCO,YiCH2O,YiCH2OH,YiCH3O,YiCH3OH,YiC2H,YiC2H2,YiC2H3,YiC2H4,YiC2H5,YiC2H6,YiHCCO,YiCH2CO,YiHCCOH,YiN,YiNH,YiNH2,YiNH3,YiNNH,YiNO,YiNO2,YiN2O,YiHNO,YiCN,YiHCN,YiH2CN,YiHCNN,YiHCNO,YiHOCN,YiHNCO,YiNCO,YiC3H7,YiC3H8,YiCH2CHO,YiCH3CHO,YiN2,YiAR
Zmix,4.450797424829153e-15,9.923713372240118e-15,-1.957934065209328e-14,-2.5727287569456445e-13,-3.055794971998425e-14,1.0043447709587025e-14,-5.745474716542299e-14,1.5186703975372055e-15,4.186186947848015e-15,3.7216765969624635e-15,1.6153544423958598e-15,3.760520636534855e-15,2.913745853171222e-14,1.3622730950256153e-15,-6.927484336074932e-17,-2.2995941213450013e-16,1.9046007475171466e-16,3.599734937252742e-16,4.0731945775748595e-15,1.8322950967393057e-15,4.986284718190354e-15,-1.8961344360903203e-12,-3.389085538314626e-14,-1.6954970035026614e-12,-1.570941304014984e-13,1.6703916529731221e-15,-3.743152054443395e-12,2.4081134105827674e-16,1.7577974697428337e-14,2.8233918452694366e-15,3.3332676612910023e-15,-7.655586626232475e-12,2.144437774538137e-15,2.813260901087159e-15,-3.254133092289221e-14,4.7718059738304195e-15,4.389402959973221e-15,-1.1910548451276591e-13,-7.492794601753676e-15,-2.4602332783379575e-14,2.3087908462034393e-15,-3.667620338406828e-15,1.1883987120300644e-11,1.8022728622440612e-14,2.2734142518306878e-13,6.140537159787695e-15,3.281075802031184e-15,1.0854632928243692e-15,1.5969054139927349e-15,3.1120955016332844e-16,5.088508653259717e-15,4.355159391809952e-15,7.51773499591727e-14
CPV_0,-1.2399640169783194e-05,-2.5870347945832063e-05,0.0002734098358339937,0.00036366044084992983,0.008719350341187248,-7.721588920980115e-05,-1.6558295963744174e-05,0.45533456759487256,-5.253022378502296e-05,-0.000766010686509123,-0.0003324743745227304,-1.0476578422611474e-05,-7.596298077990444e-05,8.114154616916103e-05,0.05781340083407013,0.2085138589101642,-2.4637593550867333e-06,-1.0957226262691672e-05,-5.111195950204281e-05,-0.0005161851853819105,-0.00015177406338854054,-4.0020834923574e-05,0.001973426633280256,-2.023007309727933e-05,0.0002366075444610559,0.5008316759742372,-7.900498487361478e-05,-6.785233668247122e-05,-4.582688380496525e-05,-0.0007954033380074823,0.48565568708093754,-0.00016158799731078442,-0.0001774379414982719,-0.0009224334323465427,-0.00017806156521734184,-1.3293706297310126e-05,-5.307049848316357e-05,-9.630162667159469e-05,0.391400746011009,-0.00032353967020322096,-0.00047488578841371293,-0.0008172754254779775,0.0001399189831393999,-8.94320417439013e-05,-5.113735403090209e-05,-0.0006295803902796763,-0.0006702627638950595,0.32544943232022405,-4.860682097941918e-05,-8.670686656598125e-07,-1.417627559490313e-05,-5.463473886222885e-05,-0.00013098258104787607
CPV_1,-0.0005115491225493304,-0.00039906063640128634,0.0028207018958425686,0.029577312971468917,0.008197434690222417,-0.0004010182069335271,0.0062477470552827095,-4.816611702579478e-05,0.49657526216525405,-9.718478923448684e-05,-4.218146297137231e-05,-0.0004322129038542627,-0.0011717595765529073,-0.00015646343533568072,4.971517588113812e-06,4.333067916672147e-05,0.02254948644810197,-6.452450162770871e-05,0.48316822373862994,-5.76232155028295e-05,-0.0008937613978998882,-0.0002040510077958219,0.0034779303838274977,-0.0001827073402804775,-0.00024677898648774936,-5.2978884669547335e-05,-0.0004028163601915636,-7.574550264349191e-06,-0.0007068981327189722,-8.879313085344669e-05,-5.1308023501108534e-05,-0.0008239086285134152,-0.001044702612043229,-0.00010299070892946352,-0.0010466112582794554,-0.0005484340133981961,0.5017054324453611,-0.0014552222203042106,-4.173949255887488e-05,-4.199836685309305e-05,-6.024933197673737e-05,-9.147481896435206e-05,-7.966653830859742e-06,-0.0013763670891931425,-0.0008291086373010332,-7.976379151143387e-05,-8.503623060552447e-05,-3.4426631787977036e-05,-0.000286234020266636,-3.5771043129063784e-05,-0.000584844496330418,0.5164697061240756,-0.0007749270274213864
CPV_2,-0.000627835021429227,-0.0010124144640967008,0.0027246596227919503,0.03629063979776327,0.00430410150254374,-0.001019311819962416,0.008045426979657443,-0.00010684583937990808,-0.0005941092058999273,-0.0002891059751705553,-0.00012548280379750282,-0.0005304639045241755,-0.00297267202940815,-0.00019207908527634686,3.550030159656891e-05,8.158366706652053e-05,-2.7007308199864095e-05,-6.837118146698105e-05,-0.0005780703866516458,-0.0001481817232668869,-0.0009470492693663197,0.2661498637117651,0.004906686362038176,0.2379880419440473,0.022268954989606942,-0.0001175206560497619,0.5254054880898843,-1.9476254170922134e-05,-0.0017933487218076201,-0.00022833510579915012,-0.00020035916262020753,1.0746483250776389,-0.0009211242753888476,-0.00024155352468458697,0.0008273867966729052,-0.0006731090109400277,-0.0006083130928012209,0.004146101651382189,0.0003517904313020628,0.0011977302110938164,-0.00017930843896320962,9.66086117897554e-05,0.00014321115056057396,-0.0026739681375921765,-0.012537212876373402,-0.0003930103219752059,-0.0002542090807529692,-7.636767916381463e-05,-0.00030330033134779284,-4.390150051277598e-05,-0.0007177917576399489,-0.000617974713540576,-0.004395918848611962
CPV_3,1.4497615827867645e-06,-0.00030586623933159227,0.0032606008681918632,-8.689781947072646e-05,0.017156812377222497,0.011025628351202382,0.0007794615506388335,-0.0007090020278958756,-8.63191267113157e-05,-0.0005629998971226224,-0.00024436087082903437,1.2249178223606046e-06,-0.0008981133689383227,2.6399039904112423e-07,0.022762165530417076,2.0493216067909958e-05,-3.977347234289838e-06,-1.0673230894018478e-05,-8.398859533583485e-05,0.3314917499661678,-0.00014784029926325992,-7.62377537931714e-05,0.005585592084874266,0.0005541397726226776,-0.0001825911343535965,-0.0007798456331930066,-0.00015050067353366385,0.043574457861981775,-0.0005418130783347256,0.5108043619062597,-0.0007561720866680982,-0.0003078204872087726,-0.00017287706762527205,0.592378013626131,-0.00017384299536160535,1.5542978130175023e-06,-8.720688728478176e-05,-0.0011147203810915644,-0.0006096713599652441,-0.00023815919407000558,-0.0003490299001966052,0.5247865440022886,0.00019703188019306358,-0.0010548693972858144,-0.0006363582795894916,-0.0004626838390017642,-0.0004926270755519377,-0.000506757720477975,-4.734700241395245e-05,1.0137680363104077e-07,1.657485056457278e-06,-8.977732423111299e-05,-0.0001268556706610357
CPV_4,0.48369700151820627,-0.0004387156054100996,-0.00010185813985689607,0.03531413563316143,-1.3462620017143891e-05,-0.00043381011952742476,-8.116768990870306e-05,-1.1672090421173203e-05,-0.0005251634948657758,2.6858073083227534e-06,1.1657315191590548e-06,0.40868037175398503,-0.00128819824595889,0.14792836476771035,-1.035740312247982e-05,-5.7083190171884435e-06,-2.3847414726429435e-05,-6.117627919820501e-05,-0.0005109846013014262,9.935601940446769e-07,-0.0008473834806340287,-0.00022137057186441745,-0.00015277817563108214,-0.00019794231229754614,-0.000255124349391723,-1.2838368730025205e-05,-0.0004370068492492394,1.3060129054664683e-07,-0.000777143155341254,1.5310013872927175e-06,-1.2377837928627827e-05,-0.0008938406269239426,-0.0009905124359546242,1.7562578100601007e-06,-0.0009925121827817213,0.5185736378515237,-0.0005305823308784475,-0.0015997819246368768,-1.0400375217498324e-05,4.079304257810591e-08,1.6651220986901367e-06,1.2988019600914803e-06,-3.9688758643553345e-06,-0.0015131328775111327,-0.000911560207987109,2.336211447133903e-06,2.351120871197211e-06,-8.342602413299309e-06,-0.000271381132475615,0.03382342995630897,0.5530016897273456,-0.0005462032251503269,-0.0007343272196632352
CPV_5,2.3223958586328255e-06,-0.0005660207280850317,0.008191014694851244,-0.000327876193947127,0.018124270741467677,0.024216830419882082,0.0009228749751611613,-0.0006234979966590673,-8.627125682369179e-05,0.5593395242154788,0.2427721465498787,1.962215126446136e-06,-0.0016620035500861698,4.7338522001797154e-05,0.01687882170424701,0.0007933598342600461,5.330089010261944e-05,-1.8317395433673677e-05,-8.394201773180533e-05,-0.0003336311612620574,-0.00025372347554957804,-8.814520106119407e-05,0.0008194656136016663,0.0007069933378203789,-0.00033296224849746524,-0.0006857980245610532,-0.00017400712183403538,-4.38556839226833e-05,-0.001002652103997714,-0.0005141010382830344,-0.0006649655242699079,-0.0003558974463859432,-0.00029664424861564217,-0.0005962150802484623,-0.0002978562913409951,2.4898532208889206e-06,-8.715770602666658e-05,-0.0020603298202616386,-0.0005362179052794231,0.2359581632296721,0.34676070291660027,-0.0005283718220605783,0.00024989184045688526,-0.0019518259031983726,-0.001180961750069822,0.45975251519642435,0.48942484835827116,-0.00044564389253689375,-8.125691091255537e-05,1.6239730323795774e-07,2.6551513986666176e-06,-8.972753008419646e-05,-0.0002186197962710216
CPV_6,-0.0008819676911535989,-0.0006330182830128187,0.05288085051969864,0.050999013472770936,0.0005580603728980124,-0.0006433071660763138,0.037121114952642253,-0.00014869961075553574,-0.0009549957965557448,-0.00030540257671389444,-0.00013255497834223338,-0.0007451832093491342,-0.0018587281242124624,-0.00026978418234254516,0.004735355048601043,-1.8285601157195948e-05,-4.3397627903581876e-05,0.033553931346800056,-0.0009292118579350942,-0.00010545402579731303,0.46477241932891383,-0.00034755288134526304,-0.0002613916801841156,-0.00031141194466744403,-0.00036092820420214645,-0.00016355770265568444,-0.0006861028952299305,-1.3861891584212519e-05,-0.0011213319403341403,-0.0001624968856900459,-0.00015851825746471365,-0.0014033484292321982,0.543191225487975,-0.00018846950149161085,0.543492356636562,-0.0009455613547014731,-0.0009648541606744685,-0.00230651660462643,-0.0001282487782757399,-0.0001301085150543337,-0.00018933325001388592,-0.00016726456595154537,-0.0003189155269418892,-0.0021830969959462814,-0.0013176670287241524,-0.00025087750109952634,-0.00026722756714603465,-0.0001062827367430676,0.14884697254485993,-6.167326409818292e-05,-0.001008337083060766,-0.0009932560187435088,0.40438827174137926
CPV_7,-0.0014073848756395234,0.15079333733679834,-0.0002796251593508352,0.08130171889718063,-0.0001474285086642394,0.14904375464013475,-0.00021282160093079303,-7.81217034853259e-05,-0.0013142436357870318,-0.0020999138994721262,-0.0009114331800996704,-0.0011891133760755755,0.4427736344921776,-0.0004306084435413341,-6.126422646763073e-05,-8.03169436123659e-06,-5.989465830519454e-05,-0.0001408563521423298,-0.0012787603550158471,-0.0006724484361277898,-0.001951072313411119,-0.0011451267119987562,0.05816665105118243,-0.0010281813154645989,0.0864919605813188,-8.59276448745716e-05,-0.0022605905066718627,-8.839309067033816e-05,0.26711610546642317,-0.001036193505008841,-8.281245061904262e-05,-0.004623673734945429,-0.002281367434445772,-0.0012018075752083396,-0.0022929926967853054,-0.0015088633586246953,-0.0013277734585867421,0.5475980756079946,-6.9778721970915e-05,-0.0008936665662911202,-0.0013018342697125676,-0.0010665179505813043,0.0015116693541653522,0.5198501223498093,0.31634138971832765,-0.001725116851910215,-0.0018374276987863074,-5.583732555421837e-05,-0.0006248460401969335,-9.841406217496023e-05,-0.001609036674850584,-0.0013668961973152384,-0.0016764265258742029
